digraph Tree {
node [shape=box] ;
0 [label="X[4] <= 2.5\ngini = 0.5\nsamples = 2400\nvalue = [1188, 1212]"] ;
1 [label="X[4] <= 1.5\ngini = 0.454\nsamples = 1699\nvalue = [591, 1108]"] ;
0 -> 1 [labeldistance=2.5, labelangle=45, headlabel="True"] ;
2 [label="X[9] <= 7139.5\ngini = 0.394\nsamples = 256\nvalue = [187, 69]"] ;
1 -> 2 ;
3 [label="X[3] <= 12.5\ngini = 0.321\nsamples = 234\nvalue = [187, 47]"] ;
2 -> 3 ;
4 [label="X[0] <= 51.5\ngini = 0.22\nsamples = 183\nvalue = [160, 23]"] ;
3 -> 4 ;
5 [label="X[11] <= 55.5\ngini = 0.14\nsamples = 145\nvalue = [134, 11]"] ;
4 -> 5 ;
6 [label="X[0] <= 33.5\ngini = 0.111\nsamples = 136\nvalue = [128, 8]"] ;
5 -> 6 ;
7 [label="X[0] <= 31.5\ngini = 0.25\nsamples = 41\nvalue = [35, 6]"] ;
6 -> 7 ;
8 [label="X[0] <= 24.5\ngini = 0.062\nsamples = 31\nvalue = [30, 1]"] ;
7 -> 8 ;
9 [label="gini = 0.278\nsamples = 6\nvalue = [5, 1]"] ;
8 -> 9 ;
10 [label="gini = 0.0\nsamples = 25\nvalue = [25, 0]"] ;
8 -> 10 ;
11 [label="X[2] <= 9.5\ngini = 0.5\nsamples = 10\nvalue = [5, 5]"] ;
7 -> 11 ;
12 [label="gini = 0.32\nsamples = 5\nvalue = [1, 4]"] ;
11 -> 12 ;
13 [label="gini = 0.32\nsamples = 5\nvalue = [4, 1]"] ;
11 -> 13 ;
14 [label="X[7] <= 1.5\ngini = 0.041\nsamples = 95\nvalue = [93, 2]"] ;
6 -> 14 ;
15 [label="gini = 0.48\nsamples = 5\nvalue = [3, 2]"] ;
14 -> 15 ;
16 [label="gini = 0.0\nsamples = 90\nvalue = [90, 0]"] ;
14 -> 16 ;
17 [label="gini = 0.444\nsamples = 9\nvalue = [6, 3]"] ;
5 -> 17 ;
18 [label="X[8] <= 0.5\ngini = 0.432\nsamples = 38\nvalue = [26, 12]"] ;
4 -> 18 ;
19 [label="X[1] <= 4.0\ngini = 0.147\nsamples = 25\nvalue = [23, 2]"] ;
18 -> 19 ;
20 [label="X[0] <= 57.5\ngini = 0.083\nsamples = 23\nvalue = [22, 1]"] ;
19 -> 20 ;
21 [label="X[0] <= 55.5\ngini = 0.18\nsamples = 10\nvalue = [9, 1]"] ;
20 -> 21 ;
22 [label="gini = 0.0\nsamples = 8\nvalue = [8, 0]"] ;
21 -> 22 ;
23 [label="gini = 0.5\nsamples = 2\nvalue = [1, 1]"] ;
21 -> 23 ;
24 [label="gini = 0.0\nsamples = 13\nvalue = [13, 0]"] ;
20 -> 24 ;
25 [label="gini = 0.5\nsamples = 2\nvalue = [1, 1]"] ;
19 -> 25 ;
26 [label="X[2] <= 5.0\ngini = 0.355\nsamples = 13\nvalue = [3, 10]"] ;
18 -> 26 ;
27 [label="gini = 0.0\nsamples = 3\nvalue = [3, 0]"] ;
26 -> 27 ;
28 [label="gini = 0.0\nsamples = 10\nvalue = [0, 10]"] ;
26 -> 28 ;
29 [label="X[5] <= 3.5\ngini = 0.498\nsamples = 51\nvalue = [27, 24]"] ;
3 -> 29 ;
30 [label="gini = 0.0\nsamples = 4\nvalue = [4, 0]"] ;
29 -> 30 ;
31 [label="X[1] <= 1.5\ngini = 0.5\nsamples = 47\nvalue = [23, 24]"] ;
29 -> 31 ;
32 [label="gini = 0.0\nsamples = 4\nvalue = [0, 4]"] ;
31 -> 32 ;
33 [label="X[10] <= 1486.0\ngini = 0.498\nsamples = 43\nvalue = [23, 20]"] ;
31 -> 33 ;
34 [label="X[11] <= 52.5\ngini = 0.493\nsamples = 41\nvalue = [23, 18]"] ;
33 -> 34 ;
35 [label="X[0] <= 46.5\ngini = 0.5\nsamples = 34\nvalue = [17, 17]"] ;
34 -> 35 ;
36 [label="X[5] <= 11.0\ngini = 0.444\nsamples = 18\nvalue = [12, 6]"] ;
35 -> 36 ;
37 [label="gini = 0.375\nsamples = 16\nvalue = [12, 4]"] ;
36 -> 37 ;
38 [label="gini = 0.0\nsamples = 2\nvalue = [0, 2]"] ;
36 -> 38 ;
39 [label="X[0] <= 55.0\ngini = 0.43\nsamples = 16\nvalue = [5, 11]"] ;
35 -> 39 ;
40 [label="gini = 0.298\nsamples = 11\nvalue = [2, 9]"] ;
39 -> 40 ;
41 [label="gini = 0.48\nsamples = 5\nvalue = [3, 2]"] ;
39 -> 41 ;
42 [label="gini = 0.245\nsamples = 7\nvalue = [6, 1]"] ;
34 -> 42 ;
43 [label="gini = 0.0\nsamples = 2\nvalue = [0, 2]"] ;
33 -> 43 ;
44 [label="gini = 0.0\nsamples = 22\nvalue = [0, 22]"] ;
2 -> 44 ;
45 [label="X[3] <= 10.5\ngini = 0.403\nsamples = 1443\nvalue = [404, 1039]"] ;
1 -> 45 ;
46 [label="X[9] <= 5095.5\ngini = 0.481\nsamples = 794\nvalue = [320, 474]"] ;
45 -> 46 ;
47 [label="X[3] <= 8.5\ngini = 0.494\nsamples = 719\nvalue = [320, 399]"] ;
46 -> 47 ;
48 [label="X[11] <= 39.5\ngini = 0.411\nsamples = 104\nvalue = [74, 30]"] ;
47 -> 48 ;
49 [label="X[3] <= 3.5\ngini = 0.1\nsamples = 19\nvalue = [18, 1]"] ;
48 -> 49 ;
50 [label="gini = 0.375\nsamples = 4\nvalue = [3, 1]"] ;
49 -> 50 ;
51 [label="gini = 0.0\nsamples = 15\nvalue = [15, 0]"] ;
49 -> 51 ;
52 [label="X[0] <= 39.5\ngini = 0.45\nsamples = 85\nvalue = [56, 29]"] ;
48 -> 52 ;
53 [label="X[2] <= 1.5\ngini = 0.257\nsamples = 33\nvalue = [28, 5]"] ;
52 -> 53 ;
54 [label="X[11] <= 42.0\ngini = 0.426\nsamples = 13\nvalue = [9, 4]"] ;
53 -> 54 ;
55 [label="gini = 0.219\nsamples = 8\nvalue = [7, 1]"] ;
54 -> 55 ;
56 [label="gini = 0.48\nsamples = 5\nvalue = [2, 3]"] ;
54 -> 56 ;
57 [label="X[12] <= 13.0\ngini = 0.095\nsamples = 20\nvalue = [19, 1]"] ;
53 -> 57 ;
58 [label="gini = 0.5\nsamples = 2\nvalue = [1, 1]"] ;
57 -> 58 ;
59 [label="gini = 0.0\nsamples = 18\nvalue = [18, 0]"] ;
57 -> 59 ;
60 [label="X[0] <= 47.5\ngini = 0.497\nsamples = 52\nvalue = [28, 24]"] ;
52 -> 60 ;
61 [label="X[5] <= 7.5\ngini = 0.408\nsamples = 14\nvalue = [4, 10]"] ;
60 -> 61 ;
62 [label="X[0] <= 45.5\ngini = 0.18\nsamples = 10\nvalue = [1, 9]"] ;
61 -> 62 ;
63 [label="gini = 0.0\nsamples = 7\nvalue = [0, 7]"] ;
62 -> 63 ;
64 [label="gini = 0.444\nsamples = 3\nvalue = [1, 2]"] ;
62 -> 64 ;
65 [label="gini = 0.375\nsamples = 4\nvalue = [3, 1]"] ;
61 -> 65 ;
66 [label="X[5] <= 11.5\ngini = 0.465\nsamples = 38\nvalue = [24, 14]"] ;
60 -> 66 ;
67 [label="X[1] <= 3.5\ngini = 0.358\nsamples = 30\nvalue = [23, 7]"] ;
66 -> 67 ;
68 [label="gini = 0.227\nsamples = 23\nvalue = [20, 3]"] ;
67 -> 68 ;
69 [label="gini = 0.49\nsamples = 7\nvalue = [3, 4]"] ;
67 -> 69 ;
70 [label="gini = 0.219\nsamples = 8\nvalue = [1, 7]"] ;
66 -> 70 ;
71 [label="X[0] <= 28.5\ngini = 0.48\nsamples = 615\nvalue = [246, 369]"] ;
47 -> 71 ;
72 [label="X[5] <= 9.0\ngini = 0.389\nsamples = 53\nvalue = [39, 14]"] ;
71 -> 72 ;
73 [label="X[10] <= 924.0\ngini = 0.251\nsamples = 34\nvalue = [29, 5]"] ;
72 -> 73 ;
74 [label="X[2] <= 13.0\ngini = 0.17\nsamples = 32\nvalue = [29, 3]"] ;
73 -> 74 ;
75 [label="X[0] <= 23.5\ngini = 0.305\nsamples = 16\nvalue = [13, 3]"] ;
74 -> 75 ;
76 [label="gini = 0.0\nsamples = 5\nvalue = [5, 0]"] ;
75 -> 76 ;
77 [label="gini = 0.397\nsamples = 11\nvalue = [8, 3]"] ;
75 -> 77 ;
78 [label="gini = 0.0\nsamples = 16\nvalue = [16, 0]"] ;
74 -> 78 ;
79 [label="gini = 0.0\nsamples = 2\nvalue = [0, 2]"] ;
73 -> 79 ;
80 [label="X[6] <= 4.0\ngini = 0.499\nsamples = 19\nvalue = [10, 9]"] ;
72 -> 80 ;
81 [label="X[5] <= 13.5\ngini = 0.492\nsamples = 16\nvalue = [7, 9]"] ;
80 -> 81 ;
82 [label="X[0] <= 25.5\ngini = 0.444\nsamples = 12\nvalue = [4, 8]"] ;
81 -> 82 ;
83 [label="gini = 0.5\nsamples = 6\nvalue = [3, 3]"] ;
82 -> 83 ;
84 [label="gini = 0.278\nsamples = 6\nvalue = [1, 5]"] ;
82 -> 84 ;
85 [label="gini = 0.375\nsamples = 4\nvalue = [3, 1]"] ;
81 -> 85 ;
86 [label="gini = 0.0\nsamples = 3\nvalue = [3, 0]"] ;
80 -> 86 ;
87 [label="X[11] <= 35.5\ngini = 0.465\nsamples = 562\nvalue = [207, 355]"] ;
71 -> 87 ;
88 [label="X[3] <= 9.5\ngini = 0.475\nsamples = 49\nvalue = [30, 19]"] ;
87 -> 88 ;
89 [label="X[6] <= 2.5\ngini = 0.312\nsamples = 31\nvalue = [25, 6]"] ;
88 -> 89 ;
90 [label="X[5] <= 3.5\ngini = 0.153\nsamples = 24\nvalue = [22, 2]"] ;
89 -> 90 ;
91 [label="gini = 0.0\nsamples = 14\nvalue = [14, 0]"] ;
90 -> 91 ;
92 [label="gini = 0.32\nsamples = 10\nvalue = [8, 2]"] ;
90 -> 92 ;
93 [label="gini = 0.49\nsamples = 7\nvalue = [3, 4]"] ;
89 -> 93 ;
94 [label="X[0] <= 49.0\ngini = 0.401\nsamples = 18\nvalue = [5, 13]"] ;
88 -> 94 ;
95 [label="X[1] <= 4.5\ngini = 0.18\nsamples = 10\nvalue = [1, 9]"] ;
94 -> 95 ;
96 [label="gini = 0.0\nsamples = 8\nvalue = [0, 8]"] ;
95 -> 96 ;
97 [label="gini = 0.5\nsamples = 2\nvalue = [1, 1]"] ;
95 -> 97 ;
98 [label="gini = 0.5\nsamples = 8\nvalue = [4, 4]"] ;
94 -> 98 ;
99 [label="X[0] <= 68.5\ngini = 0.452\nsamples = 513\nvalue = [177, 336]"] ;
87 -> 99 ;
100 [label="X[0] <= 35.5\ngini = 0.449\nsamples = 509\nvalue = [173, 336]"] ;
99 -> 100 ;
101 [label="X[11] <= 49.5\ngini = 0.496\nsamples = 105\nvalue = [48, 57]"] ;
100 -> 101 ;
102 [label="gini = 0.494\nsamples = 74\nvalue = [41, 33]"] ;
101 -> 102 ;
103 [label="gini = 0.35\nsamples = 31\nvalue = [7, 24]"] ;
101 -> 103 ;
104 [label="X[9] <= 4699.5\ngini = 0.427\nsamples = 404\nvalue = [125, 279]"] ;
100 -> 104 ;
105 [label="gini = 0.425\nsamples = 402\nvalue = [123, 279]"] ;
104 -> 105 ;
106 [label="gini = 0.0\nsamples = 2\nvalue = [2, 0]"] ;
104 -> 106 ;
107 [label="gini = 0.0\nsamples = 4\nvalue = [4, 0]"] ;
99 -> 107 ;
108 [label="gini = 0.0\nsamples = 75\nvalue = [0, 75]"] ;
46 -> 108 ;
109 [label="X[9] <= 4782.0\ngini = 0.225\nsamples = 649\nvalue = [84, 565]"] ;
45 -> 109 ;
110 [label="X[10] <= 1738.0\ngini = 0.266\nsamples = 532\nvalue = [84, 448]"] ;
109 -> 110 ;
111 [label="X[0] <= 28.5\ngini = 0.298\nsamples = 461\nvalue = [84, 377]"] ;
110 -> 111 ;
112 [label="X[7] <= 3.0\ngini = 0.49\nsamples = 28\nvalue = [12, 16]"] ;
111 -> 112 ;
113 [label="gini = 0.32\nsamples = 5\nvalue = [4, 1]"] ;
112 -> 113 ;
114 [label="X[5] <= 2.0\ngini = 0.454\nsamples = 23\nvalue = [8, 15]"] ;
112 -> 114 ;
115 [label="gini = 0.0\nsamples = 2\nvalue = [2, 0]"] ;
114 -> 115 ;
116 [label="X[5] <= 9.0\ngini = 0.408\nsamples = 21\nvalue = [6, 15]"] ;
114 -> 116 ;
117 [label="gini = 0.0\nsamples = 9\nvalue = [0, 9]"] ;
116 -> 117 ;
118 [label="X[6] <= 2.5\ngini = 0.5\nsamples = 12\nvalue = [6, 6]"] ;
116 -> 118 ;
119 [label="gini = 0.444\nsamples = 9\nvalue = [6, 3]"] ;
118 -> 119 ;
120 [label="gini = 0.0\nsamples = 3\nvalue = [0, 3]"] ;
118 -> 120 ;
121 [label="X[9] <= 3257.0\ngini = 0.277\nsamples = 433\nvalue = [72, 361]"] ;
111 -> 121 ;
122 [label="X[0] <= 68.5\ngini = 0.27\nsamples = 429\nvalue = [69, 360]"] ;
121 -> 122 ;
123 [label="X[5] <= 13.5\ngini = 0.263\nsamples = 424\nvalue = [66, 358]"] ;
122 -> 123 ;
124 [label="X[3] <= 15.5\ngini = 0.254\nsamples = 415\nvalue = [62, 353]"] ;
123 -> 124 ;
125 [label="gini = 0.266\nsamples = 393\nvalue = [62, 331]"] ;
124 -> 125 ;
126 [label="gini = 0.0\nsamples = 22\nvalue = [0, 22]"] ;
124 -> 126 ;
127 [label="gini = 0.494\nsamples = 9\nvalue = [4, 5]"] ;
123 -> 127 ;
128 [label="gini = 0.48\nsamples = 5\nvalue = [3, 2]"] ;
122 -> 128 ;
129 [label="gini = 0.375\nsamples = 4\nvalue = [3, 1]"] ;
121 -> 129 ;
130 [label="gini = 0.0\nsamples = 71\nvalue = [0, 71]"] ;
110 -> 130 ;
131 [label="gini = 0.0\nsamples = 117\nvalue = [0, 117]"] ;
109 -> 131 ;
132 [label="X[9] <= 7731.5\ngini = 0.253\nsamples = 701\nvalue = [597, 104]"] ;
0 -> 132 [labeldistance=2.5, labelangle=-45, headlabel="False"] ;
133 [label="X[3] <= 13.5\ngini = 0.21\nsamples = 678\nvalue = [597, 81]"] ;
132 -> 133 ;
134 [label="X[0] <= 29.5\ngini = 0.151\nsamples = 630\nvalue = [578, 52]"] ;
133 -> 134 ;
135 [label="X[10] <= 2116.0\ngini = 0.034\nsamples = 342\nvalue = [336, 6]"] ;
134 -> 135 ;
136 [label="X[4] <= 4.5\ngini = 0.029\nsamples = 340\nvalue = [335, 5]"] ;
135 -> 136 ;
137 [label="X[11] <= 49.0\ngini = 0.024\nsamples = 335\nvalue = [331, 4]"] ;
136 -> 137 ;
138 [label="X[3] <= 10.5\ngini = 0.013\nsamples = 308\nvalue = [306, 2]"] ;
137 -> 138 ;
139 [label="gini = 0.0\nsamples = 243\nvalue = [243, 0]"] ;
138 -> 139 ;
140 [label="X[5] <= 5.5\ngini = 0.06\nsamples = 65\nvalue = [63, 2]"] ;
138 -> 140 ;
141 [label="X[6] <= 1.5\ngini = 0.159\nsamples = 23\nvalue = [21, 2]"] ;
140 -> 141 ;
142 [label="gini = 0.278\nsamples = 12\nvalue = [10, 2]"] ;
141 -> 142 ;
143 [label="gini = 0.0\nsamples = 11\nvalue = [11, 0]"] ;
141 -> 143 ;
144 [label="gini = 0.0\nsamples = 42\nvalue = [42, 0]"] ;
140 -> 144 ;
145 [label="X[0] <= 26.5\ngini = 0.137\nsamples = 27\nvalue = [25, 2]"] ;
137 -> 145 ;
146 [label="gini = 0.0\nsamples = 18\nvalue = [18, 0]"] ;
145 -> 146 ;
147 [label="gini = 0.346\nsamples = 9\nvalue = [7, 2]"] ;
145 -> 147 ;
148 [label="gini = 0.32\nsamples = 5\nvalue = [4, 1]"] ;
136 -> 148 ;
149 [label="gini = 0.5\nsamples = 2\nvalue = [1, 1]"] ;
135 -> 149 ;
150 [label="X[11] <= 47.5\ngini = 0.268\nsamples = 288\nvalue = [242, 46]"] ;
134 -> 150 ;
151 [label="X[5] <= 9.5\ngini = 0.202\nsamples = 245\nvalue = [217, 28]"] ;
150 -> 151 ;
152 [label="X[3] <= 12.5\ngini = 0.122\nsamples = 169\nvalue = [158, 11]"] ;
151 -> 152 ;
153 [label="X[7] <= 1.5\ngini = 0.078\nsamples = 148\nvalue = [142, 6]"] ;
152 -> 153 ;
154 [label="gini = 0.5\nsamples = 2\nvalue = [1, 1]"] ;
153 -> 154 ;
155 [label="X[11] <= 44.5\ngini = 0.066\nsamples = 146\nvalue = [141, 5]"] ;
153 -> 155 ;
156 [label="X[2] <= 14.0\ngini = 0.043\nsamples = 136\nvalue = [133, 3]"] ;
155 -> 156 ;
157 [label="gini = 0.017\nsamples = 117\nvalue = [116, 1]"] ;
156 -> 157 ;
158 [label="gini = 0.188\nsamples = 19\nvalue = [17, 2]"] ;
156 -> 158 ;
159 [label="X[8] <= 0.5\ngini = 0.32\nsamples = 10\nvalue = [8, 2]"] ;
155 -> 159 ;
160 [label="gini = 0.0\nsamples = 4\nvalue = [4, 0]"] ;
159 -> 160 ;
161 [label="gini = 0.444\nsamples = 6\nvalue = [4, 2]"] ;
159 -> 161 ;
162 [label="X[0] <= 42.0\ngini = 0.363\nsamples = 21\nvalue = [16, 5]"] ;
152 -> 162 ;
163 [label="X[11] <= 42.5\ngini = 0.124\nsamples = 15\nvalue = [14, 1]"] ;
162 -> 163 ;
164 [label="gini = 0.0\nsamples = 13\nvalue = [13, 0]"] ;
163 -> 164 ;
165 [label="gini = 0.5\nsamples = 2\nvalue = [1, 1]"] ;
163 -> 165 ;
166 [label="gini = 0.444\nsamples = 6\nvalue = [2, 4]"] ;
162 -> 166 ;
167 [label="X[0] <= 36.5\ngini = 0.347\nsamples = 76\nvalue = [59, 17]"] ;
151 -> 167 ;
168 [label="X[1] <= 2.5\ngini = 0.157\nsamples = 35\nvalue = [32, 3]"] ;
167 -> 168 ;
169 [label="gini = 0.5\nsamples = 2\nvalue = [1, 1]"] ;
168 -> 169 ;
170 [label="X[1] <= 4.0\ngini = 0.114\nsamples = 33\nvalue = [31, 2]"] ;
168 -> 170 ;
171 [label="X[6] <= 3.5\ngini = 0.064\nsamples = 30\nvalue = [29, 1]"] ;
170 -> 171 ;
172 [label="gini = 0.0\nsamples = 27\nvalue = [27, 0]"] ;
171 -> 172 ;
173 [label="gini = 0.444\nsamples = 3\nvalue = [2, 1]"] ;
171 -> 173 ;
174 [label="gini = 0.444\nsamples = 3\nvalue = [2, 1]"] ;
170 -> 174 ;
175 [label="X[5] <= 11.5\ngini = 0.45\nsamples = 41\nvalue = [27, 14]"] ;
167 -> 175 ;
176 [label="X[11] <= 36.5\ngini = 0.499\nsamples = 19\nvalue = [9, 10]"] ;
175 -> 176 ;
177 [label="gini = 0.0\nsamples = 2\nvalue = [2, 0]"] ;
176 -> 177 ;
178 [label="X[0] <= 44.0\ngini = 0.484\nsamples = 17\nvalue = [7, 10]"] ;
176 -> 178 ;
179 [label="gini = 0.48\nsamples = 10\nvalue = [6, 4]"] ;
178 -> 179 ;
180 [label="gini = 0.245\nsamples = 7\nvalue = [1, 6]"] ;
178 -> 180 ;
181 [label="X[6] <= 3.5\ngini = 0.298\nsamples = 22\nvalue = [18, 4]"] ;
175 -> 181 ;
182 [label="X[2] <= 13.0\ngini = 0.198\nsamples = 18\nvalue = [16, 2]"] ;
181 -> 182 ;
183 [label="gini = 0.0\nsamples = 13\nvalue = [13, 0]"] ;
182 -> 183 ;
184 [label="gini = 0.48\nsamples = 5\nvalue = [3, 2]"] ;
182 -> 184 ;
185 [label="gini = 0.5\nsamples = 4\nvalue = [2, 2]"] ;
181 -> 185 ;
186 [label="X[3] <= 12.5\ngini = 0.487\nsamples = 43\nvalue = [25, 18]"] ;
150 -> 186 ;
187 [label="X[2] <= 5.5\ngini = 0.384\nsamples = 27\nvalue = [20, 7]"] ;
186 -> 187 ;
188 [label="gini = 0.48\nsamples = 5\nvalue = [2, 3]"] ;
187 -> 188 ;
189 [label="X[5] <= 3.5\ngini = 0.298\nsamples = 22\nvalue = [18, 4]"] ;
187 -> 189 ;
190 [label="gini = 0.0\nsamples = 2\nvalue = [0, 2]"] ;
189 -> 190 ;
191 [label="X[0] <= 34.5\ngini = 0.18\nsamples = 20\nvalue = [18, 2]"] ;
189 -> 191 ;
192 [label="gini = 0.375\nsamples = 8\nvalue = [6, 2]"] ;
191 -> 192 ;
193 [label="gini = 0.0\nsamples = 12\nvalue = [12, 0]"] ;
191 -> 193 ;
194 [label="X[11] <= 49.0\ngini = 0.43\nsamples = 16\nvalue = [5, 11]"] ;
186 -> 194 ;
195 [label="gini = 0.0\nsamples = 2\nvalue = [2, 0]"] ;
194 -> 195 ;
196 [label="X[0] <= 35.5\ngini = 0.337\nsamples = 14\nvalue = [3, 11]"] ;
194 -> 196 ;
197 [label="gini = 0.0\nsamples = 6\nvalue = [0, 6]"] ;
196 -> 197 ;
198 [label="gini = 0.469\nsamples = 8\nvalue = [3, 5]"] ;
196 -> 198 ;
199 [label="X[4] <= 3.5\ngini = 0.478\nsamples = 48\nvalue = [19, 29]"] ;
133 -> 199 ;
200 [label="gini = 0.0\nsamples = 5\nvalue = [5, 0]"] ;
199 -> 200 ;
201 [label="X[1] <= 5.5\ngini = 0.439\nsamples = 43\nvalue = [14, 29]"] ;
199 -> 201 ;
202 [label="X[0] <= 26.5\ngini = 0.381\nsamples = 39\nvalue = [10, 29]"] ;
201 -> 202 ;
203 [label="gini = 0.0\nsamples = 3\nvalue = [3, 0]"] ;
202 -> 203 ;
204 [label="X[11] <= 58.0\ngini = 0.313\nsamples = 36\nvalue = [7, 29]"] ;
202 -> 204 ;
205 [label="X[0] <= 42.0\ngini = 0.231\nsamples = 30\nvalue = [4, 26]"] ;
204 -> 205 ;
206 [label="X[11] <= 41.0\ngini = 0.36\nsamples = 17\nvalue = [4, 13]"] ;
205 -> 206 ;
207 [label="gini = 0.5\nsamples = 6\nvalue = [3, 3]"] ;
206 -> 207 ;
208 [label="X[0] <= 32.0\ngini = 0.165\nsamples = 11\nvalue = [1, 10]"] ;
206 -> 208 ;
209 [label="gini = 0.375\nsamples = 4\nvalue = [1, 3]"] ;
208 -> 209 ;
210 [label="gini = 0.0\nsamples = 7\nvalue = [0, 7]"] ;
208 -> 210 ;
211 [label="gini = 0.0\nsamples = 13\nvalue = [0, 13]"] ;
205 -> 211 ;
212 [label="gini = 0.5\nsamples = 6\nvalue = [3, 3]"] ;
204 -> 212 ;
213 [label="gini = 0.0\nsamples = 4\nvalue = [4, 0]"] ;
201 -> 213 ;
214 [label="gini = 0.0\nsamples = 23\nvalue = [0, 23]"] ;
132 -> 214 ;
}