digraph Tree {
node [shape=box] ;
0 [label="X[3] <= 0.5\ngini = 0.451\nsamples = 1382\nvalue = [305, 52, 975, 50]"] ;
1 [label="gini = 0.0\nsamples = 469\nvalue = [0, 0, 469, 0]"] ;
0 -> 1 [labeldistance=2.5, labelangle=45, headlabel="True"] ;
2 [label="X[5] <= 0.5\ngini = 0.575\nsamples = 913\nvalue = [305, 52, 506, 50]"] ;
0 -> 2 [labeldistance=2.5, labelangle=-45, headlabel="False"] ;
3 [label="X[0] <= 2.5\ngini = 0.616\nsamples = 298\nvalue = [165, 20, 63, 50]"] ;
2 -> 3 ;
4 [label="X[0] <= 0.5\ngini = 0.592\nsamples = 220\nvalue = [128, 20, 22, 50]"] ;
3 -> 4 ;
5 [label="gini = 0.372\nsamples = 73\nvalue = [55, 0, 18, 0]"] ;
4 -> 5 ;
6 [label="gini = 0.618\nsamples = 147\nvalue = [73, 20, 4, 50]"] ;
4 -> 6 ;
7 [label="X[1] <= 0.5\ngini = 0.499\nsamples = 78\nvalue = [37, 0, 41, 0]"] ;
3 -> 7 ;
8 [label="gini = 0.0\nsamples = 20\nvalue = [0, 0, 20, 0]"] ;
7 -> 8 ;
9 [label="gini = 0.462\nsamples = 58\nvalue = [37, 0, 21, 0]"] ;
7 -> 9 ;
10 [label="X[5] <= 1.5\ngini = 0.427\nsamples = 615\nvalue = [140, 32, 443, 0]"] ;
2 -> 10 ;
11 [label="gini = 0.0\nsamples = 315\nvalue = [0, 0, 315, 0]"] ;
10 -> 11 ;
12 [label="X[4] <= 1.5\ngini = 0.589\nsamples = 300\nvalue = [140, 32, 128, 0]"] ;
10 -> 12 ;
13 [label="gini = 0.58\nsamples = 200\nvalue = [113, 32, 55, 0]"] ;
12 -> 13 ;
14 [label="gini = 0.394\nsamples = 100\nvalue = [27, 0, 73, 0]"] ;
12 -> 14 ;
}