digraph Tree {
node [shape=box] ;
0 [label="X[3] <= 0.5\ngini = 0.451\nsamples = 1382\nvalue = [305, 52, 975, 50]"] ;
1 [label="gini = 0.0\nsamples = 469\nvalue = [0, 0, 469, 0]"] ;
0 -> 1 [labeldistance=2.5, labelangle=45, headlabel="True"] ;
2 [label="X[5] <= 0.5\ngini = 0.575\nsamples = 913\nvalue = [305, 52, 506, 50]"] ;
0 -> 2 [labeldistance=2.5, labelangle=-45, headlabel="False"] ;
3 [label="X[0] <= 2.5\ngini = 0.616\nsamples = 298\nvalue = [165, 20, 63, 50]"] ;
2 -> 3 ;
4 [label="X[0] <= 0.5\ngini = 0.592\nsamples = 220\nvalue = [128, 20, 22, 50]"] ;
3 -> 4 ;
5 [label="X[1] <= 2.5\ngini = 0.372\nsamples = 73\nvalue = [55, 0, 18, 0]"] ;
4 -> 5 ;
6 [label="X[2] <= 0.5\ngini = 0.098\nsamples = 58\nvalue = [55, 0, 3, 0]"] ;
5 -> 6 ;
7 [label="X[4] <= 1.5\ngini = 0.305\nsamples = 16\nvalue = [13, 0, 3, 0]"] ;
6 -> 7 ;
8 [label="gini = 0.0\nsamples = 10\nvalue = [10, 0, 0, 0]"] ;
7 -> 8 ;
9 [label="X[3] <= 1.5\ngini = 0.5\nsamples = 6\nvalue = [3, 0, 3, 0]"] ;
7 -> 9 ;
10 [label="gini = 0.0\nsamples = 3\nvalue = [3, 0, 0, 0]"] ;
9 -> 10 ;
11 [label="gini = 0.0\nsamples = 3\nvalue = [0, 0, 3, 0]"] ;
9 -> 11 ;
12 [label="gini = 0.0\nsamples = 42\nvalue = [42, 0, 0, 0]"] ;
6 -> 12 ;
13 [label="gini = 0.0\nsamples = 15\nvalue = [0, 0, 15, 0]"] ;
5 -> 13 ;
14 [label="X[1] <= 2.5\ngini = 0.618\nsamples = 147\nvalue = [73, 20, 4, 50]"] ;
4 -> 14 ;
15 [label="X[4] <= 1.5\ngini = 0.641\nsamples = 110\nvalue = [38, 20, 2, 50]"] ;
14 -> 15 ;
16 [label="X[1] <= 0.5\ngini = 0.478\nsamples = 74\nvalue = [18, 6, 0, 50]"] ;
15 -> 16 ;
17 [label="X[0] <= 1.5\ngini = 0.494\nsamples = 27\nvalue = [15, 0, 0, 12]"] ;
16 -> 17 ;
18 [label="X[2] <= 1.5\ngini = 0.245\nsamples = 14\nvalue = [2, 0, 0, 12]"] ;
17 -> 18 ;
19 [label="X[4] <= 0.5\ngini = 0.408\nsamples = 7\nvalue = [2, 0, 0, 5]"] ;
18 -> 19 ;
20 [label="gini = 0.0\nsamples = 4\nvalue = [0, 0, 0, 4]"] ;
19 -> 20 ;
21 [label="gini = 0.444\nsamples = 3\nvalue = [2, 0, 0, 1]"] ;
19 -> 21 ;
22 [label="gini = 0.0\nsamples = 7\nvalue = [0, 0, 0, 7]"] ;
18 -> 22 ;
23 [label="gini = 0.0\nsamples = 13\nvalue = [13, 0, 0, 0]"] ;
17 -> 23 ;
24 [label="X[2] <= 0.5\ngini = 0.326\nsamples = 47\nvalue = [3, 6, 0, 38]"] ;
16 -> 24 ;
25 [label="X[4] <= 0.5\ngini = 0.64\nsamples = 10\nvalue = [2, 4, 0, 4]"] ;
24 -> 25 ;
26 [label="gini = 0.0\nsamples = 4\nvalue = [0, 0, 0, 4]"] ;
25 -> 26 ;
27 [label="X[0] <= 1.5\ngini = 0.444\nsamples = 6\nvalue = [2, 4, 0, 0]"] ;
25 -> 27 ;
28 [label="gini = 0.0\nsamples = 3\nvalue = [0, 3, 0, 0]"] ;
27 -> 28 ;
29 [label="gini = 0.444\nsamples = 3\nvalue = [2, 1, 0, 0]"] ;
27 -> 29 ;
30 [label="X[2] <= 1.5\ngini = 0.152\nsamples = 37\nvalue = [1, 2, 0, 34]"] ;
24 -> 30 ;
31 [label="X[4] <= 0.5\ngini = 0.379\nsamples = 13\nvalue = [1, 2, 0, 10]"] ;
30 -> 31 ;
32 [label="gini = 0.0\nsamples = 7\nvalue = [0, 0, 0, 7]"] ;
31 -> 32 ;
33 [label="gini = 0.611\nsamples = 6\nvalue = [1, 2, 0, 3]"] ;
31 -> 33 ;
34 [label="gini = 0.0\nsamples = 24\nvalue = [0, 0, 0, 24]"] ;
30 -> 34 ;
35 [label="X[1] <= 0.5\ngini = 0.537\nsamples = 36\nvalue = [20, 14, 2, 0]"] ;
15 -> 35 ;
36 [label="X[2] <= 0.5\ngini = 0.133\nsamples = 14\nvalue = [13, 0, 1, 0]"] ;
35 -> 36 ;
37 [label="gini = 0.444\nsamples = 3\nvalue = [2, 0, 1, 0]"] ;
36 -> 37 ;
38 [label="gini = 0.0\nsamples = 11\nvalue = [11, 0, 0, 0]"] ;
36 -> 38 ;
39 [label="X[0] <= 1.5\ngini = 0.492\nsamples = 22\nvalue = [7, 14, 1, 0]"] ;
35 -> 39 ;
40 [label="gini = 0.0\nsamples = 11\nvalue = [0, 11, 0, 0]"] ;
39 -> 40 ;
41 [label="X[1] <= 1.5\ngini = 0.512\nsamples = 11\nvalue = [7, 3, 1, 0]"] ;
39 -> 41 ;
42 [label="gini = 0.0\nsamples = 3\nvalue = [0, 3, 0, 0]"] ;
41 -> 42 ;
43 [label="X[2] <= 0.5\ngini = 0.219\nsamples = 8\nvalue = [7, 0, 1, 0]"] ;
41 -> 43 ;
44 [label="gini = 0.5\nsamples = 2\nvalue = [1, 0, 1, 0]"] ;
43 -> 44 ;
45 [label="gini = 0.0\nsamples = 6\nvalue = [6, 0, 0, 0]"] ;
43 -> 45 ;
46 [label="X[2] <= 0.5\ngini = 0.102\nsamples = 37\nvalue = [35, 0, 2, 0]"] ;
14 -> 46 ;
47 [label="X[4] <= 1.5\ngini = 0.375\nsamples = 8\nvalue = [6, 0, 2, 0]"] ;
46 -> 47 ;
48 [label="gini = 0.0\nsamples = 6\nvalue = [6, 0, 0, 0]"] ;
47 -> 48 ;
49 [label="gini = 0.0\nsamples = 2\nvalue = [0, 0, 2, 0]"] ;
47 -> 49 ;
50 [label="gini = 0.0\nsamples = 29\nvalue = [29, 0, 0, 0]"] ;
46 -> 50 ;
51 [label="X[1] <= 0.5\ngini = 0.499\nsamples = 78\nvalue = [37, 0, 41, 0]"] ;
3 -> 51 ;
52 [label="gini = 0.0\nsamples = 20\nvalue = [0, 0, 20, 0]"] ;
51 -> 52 ;
53 [label="X[1] <= 2.5\ngini = 0.462\nsamples = 58\nvalue = [37, 0, 21, 0]"] ;
51 -> 53 ;
54 [label="X[4] <= 1.5\ngini = 0.097\nsamples = 39\nvalue = [37, 0, 2, 0]"] ;
53 -> 54 ;
55 [label="gini = 0.0\nsamples = 28\nvalue = [28, 0, 0, 0]"] ;
54 -> 55 ;
56 [label="X[2] <= 0.5\ngini = 0.298\nsamples = 11\nvalue = [9, 0, 2, 0]"] ;
54 -> 56 ;
57 [label="gini = 0.444\nsamples = 3\nvalue = [1, 0, 2, 0]"] ;
56 -> 57 ;
58 [label="gini = 0.0\nsamples = 8\nvalue = [8, 0, 0, 0]"] ;
56 -> 58 ;
59 [label="gini = 0.0\nsamples = 19\nvalue = [0, 0, 19, 0]"] ;
53 -> 59 ;
60 [label="X[5] <= 1.5\ngini = 0.427\nsamples = 615\nvalue = [140, 32, 443, 0]"] ;
2 -> 60 ;
61 [label="gini = 0.0\nsamples = 315\nvalue = [0, 0, 315, 0]"] ;
60 -> 61 ;
62 [label="X[4] <= 1.5\ngini = 0.589\nsamples = 300\nvalue = [140, 32, 128, 0]"] ;
60 -> 62 ;
63 [label="X[0] <= 2.5\ngini = 0.58\nsamples = 200\nvalue = [113, 32, 55, 0]"] ;
62 -> 63 ;
64 [label="X[0] <= 0.5\ngini = 0.538\nsamples = 152\nvalue = [95, 32, 25, 0]"] ;
63 -> 64 ;
65 [label="X[1] <= 2.5\ngini = 0.444\nsamples = 51\nvalue = [34, 0, 17, 0]"] ;
64 -> 65 ;
66 [label="X[4] <= 0.5\ngini = 0.331\nsamples = 43\nvalue = [34, 0, 9, 0]"] ;
65 -> 66 ;
67 [label="gini = 0.0\nsamples = 21\nvalue = [21, 0, 0, 0]"] ;
66 -> 67 ;
68 [label="X[2] <= 1.5\ngini = 0.483\nsamples = 22\nvalue = [13, 0, 9, 0]"] ;
66 -> 68 ;
69 [label="X[2] <= 0.5\ngini = 0.298\nsamples = 11\nvalue = [2, 0, 9, 0]"] ;
68 -> 69 ;
70 [label="gini = 0.0\nsamples = 6\nvalue = [0, 0, 6, 0]"] ;
69 -> 70 ;
71 [label="gini = 0.48\nsamples = 5\nvalue = [2, 0, 3, 0]"] ;
69 -> 71 ;
72 [label="gini = 0.0\nsamples = 11\nvalue = [11, 0, 0, 0]"] ;
68 -> 72 ;
73 [label="gini = 0.0\nsamples = 8\nvalue = [0, 0, 8, 0]"] ;
65 -> 73 ;
74 [label="X[1] <= 0.5\ngini = 0.529\nsamples = 101\nvalue = [61, 32, 8, 0]"] ;
64 -> 74 ;
75 [label="X[2] <= 0.5\ngini = 0.198\nsamples = 27\nvalue = [24, 0, 3, 0]"] ;
74 -> 75 ;
76 [label="X[4] <= 0.5\ngini = 0.48\nsamples = 5\nvalue = [3, 0, 2, 0]"] ;
75 -> 76 ;
77 [label="gini = 0.0\nsamples = 3\nvalue = [3, 0, 0, 0]"] ;
76 -> 77 ;
78 [label="gini = 0.0\nsamples = 2\nvalue = [0, 0, 2, 0]"] ;
76 -> 78 ;
79 [label="X[2] <= 1.5\ngini = 0.087\nsamples = 22\nvalue = [21, 0, 1, 0]"] ;
75 -> 79 ;
80 [label="X[0] <= 1.5\ngini = 0.245\nsamples = 7\nvalue = [6, 0, 1, 0]"] ;
79 -> 80 ;
81 [label="gini = 0.0\nsamples = 3\nvalue = [3, 0, 0, 0]"] ;
80 -> 81 ;
82 [label="gini = 0.375\nsamples = 4\nvalue = [3, 0, 1, 0]"] ;
80 -> 82 ;
83 [label="gini = 0.0\nsamples = 15\nvalue = [15, 0, 0, 0]"] ;
79 -> 83 ;
84 [label="X[1] <= 1.5\ngini = 0.558\nsamples = 74\nvalue = [37, 32, 5, 0]"] ;
74 -> 84 ;
85 [label="X[4] <= 0.5\ngini = 0.211\nsamples = 25\nvalue = [3, 22, 0, 0]"] ;
84 -> 85 ;
86 [label="gini = 0.0\nsamples = 15\nvalue = [0, 15, 0, 0]"] ;
85 -> 86 ;
87 [label="X[2] <= 1.5\ngini = 0.42\nsamples = 10\nvalue = [3, 7, 0, 0]"] ;
85 -> 87 ;
88 [label="gini = 0.375\nsamples = 4\nvalue = [3, 1, 0, 0]"] ;
87 -> 88 ;
89 [label="gini = 0.0\nsamples = 6\nvalue = [0, 6, 0, 0]"] ;
87 -> 89 ;
90 [label="X[0] <= 1.5\ngini = 0.466\nsamples = 49\nvalue = [34, 10, 5, 0]"] ;
84 -> 90 ;
91 [label="X[1] <= 2.5\ngini = 0.582\nsamples = 27\nvalue = [14, 10, 3, 0]"] ;
90 -> 91 ;
92 [label="gini = 0.278\nsamples = 12\nvalue = [2, 10, 0, 0]"] ;
91 -> 92 ;
93 [label="gini = 0.32\nsamples = 15\nvalue = [12, 0, 3, 0]"] ;
91 -> 93 ;
94 [label="X[1] <= 2.5\ngini = 0.165\nsamples = 22\nvalue = [20, 0, 2, 0]"] ;
90 -> 94 ;
95 [label="gini = 0.0\nsamples = 11\nvalue = [11, 0, 0, 0]"] ;
94 -> 95 ;
96 [label="gini = 0.298\nsamples = 11\nvalue = [9, 0, 2, 0]"] ;
94 -> 96 ;
97 [label="X[1] <= 0.5\ngini = 0.469\nsamples = 48\nvalue = [18, 0, 30, 0]"] ;
63 -> 97 ;
98 [label="gini = 0.0\nsamples = 14\nvalue = [0, 0, 14, 0]"] ;
97 -> 98 ;
99 [label="X[1] <= 2.5\ngini = 0.498\nsamples = 34\nvalue = [18, 0, 16, 0]"] ;
97 -> 99 ;
100 [label="X[2] <= 0.5\ngini = 0.245\nsamples = 21\nvalue = [18, 0, 3, 0]"] ;
99 -> 100 ;
101 [label="X[4] <= 0.5\ngini = 0.5\nsamples = 6\nvalue = [3, 0, 3, 0]"] ;
100 -> 101 ;
102 [label="gini = 0.0\nsamples = 3\nvalue = [3, 0, 0, 0]"] ;
101 -> 102 ;
103 [label="gini = 0.0\nsamples = 3\nvalue = [0, 0, 3, 0]"] ;
101 -> 103 ;
104 [label="gini = 0.0\nsamples = 15\nvalue = [15, 0, 0, 0]"] ;
100 -> 104 ;
105 [label="gini = 0.0\nsamples = 13\nvalue = [0, 0, 13, 0]"] ;
99 -> 105 ;
106 [label="X[0] <= 0.5\ngini = 0.394\nsamples = 100\nvalue = [27, 0, 73, 0]"] ;
62 -> 106 ;
107 [label="gini = 0.0\nsamples = 26\nvalue = [0, 0, 26, 0]"] ;
106 -> 107 ;
108 [label="X[0] <= 2.5\ngini = 0.463\nsamples = 74\nvalue = [27, 0, 47, 0]"] ;
106 -> 108 ;
109 [label="X[1] <= 2.5\ngini = 0.492\nsamples = 48\nvalue = [27, 0, 21, 0]"] ;
108 -> 109 ;
110 [label="X[1] <= 0.5\ngini = 0.394\nsamples = 37\nvalue = [27, 0, 10, 0]"] ;
109 -> 110 ;
111 [label="X[0] <= 1.5\ngini = 0.48\nsamples = 10\nvalue = [4, 0, 6, 0]"] ;
110 -> 111 ;
112 [label="gini = 0.0\nsamples = 4\nvalue = [4, 0, 0, 0]"] ;
111 -> 112 ;
113 [label="gini = 0.0\nsamples = 6\nvalue = [0, 0, 6, 0]"] ;
111 -> 113 ;
114 [label="X[2] <= 0.5\ngini = 0.252\nsamples = 27\nvalue = [23, 0, 4, 0]"] ;
110 -> 114 ;
115 [label="X[3] <= 1.5\ngini = 0.49\nsamples = 7\nvalue = [3, 0, 4, 0]"] ;
114 -> 115 ;
116 [label="gini = 0.0\nsamples = 3\nvalue = [3, 0, 0, 0]"] ;
115 -> 116 ;
117 [label="gini = 0.0\nsamples = 4\nvalue = [0, 0, 4, 0]"] ;
115 -> 117 ;
118 [label="gini = 0.0\nsamples = 20\nvalue = [20, 0, 0, 0]"] ;
114 -> 118 ;
119 [label="gini = 0.0\nsamples = 11\nvalue = [0, 0, 11, 0]"] ;
109 -> 119 ;
120 [label="gini = 0.0\nsamples = 26\nvalue = [0, 0, 26, 0]"] ;
108 -> 120 ;
}